{"type":"LSTMTimeStep","options":{"inputSize":1,"inputRange":0,"hiddenLayers":[20],"outputSize":1,"decayRate":0.999,"smoothEps":1e-8,"regc":0.000001,"clipval":5,"maxPredictionLength":100,"dataFormatter":{"indexTable":{},"characterTable":{},"characters":[],"specialIndexes":[]},"log":true,"logPeriod":10},"hiddenLayers":[{"inputMatrix":{"rows":20,"columns":1,"weights":[-0.003931754734367132,0.20966865122318268,0.19325323402881622,0.30961135029792786,-0.0008145521860569715,0.24322867393493652,0.5920972228050232,0.35804852843284607,0.1276683360338211,0.0007433134596794844,0.19470661878585815,0.1264895498752594,0.0007988723227754235,-0.0003380620328243822,0.32853755354881287,-0.00019106770923826844,0.0007341995369642973,-0.0006999351317062974,-0.00026917699142359197,0.4251282215118408]},"inputHidden":{"rows":20,"columns":20,"weights":[0.003758564591407776,0.004869106225669384,0.01830313913524151,-0.01722629927098751,-0.022126469761133194,0.0038257092237472534,0.014188931323587894,0.015645831823349,-0.007117690518498421,-0.012479450553655624,-0.002875927835702896,0.02243524044752121,0.01537630707025528,-0.020971160382032394,0.014786943793296814,0.02318011224269867,0.013384949415922165,-0.011007594875991344,-0.00040406169136986136,0.01852797344326973,-0.018520714715123177,-0.023736506700515747,0.005157443229109049,-0.01751035638153553,0.0028724048752337694,-0.012335020117461681,0.0037006069906055927,0.0034048825036734343,0.017593828961253166,-0.004576309584081173,0.013126669451594353,0.00677237706258893,0.014708667993545532,-0.008917519822716713,0.015748484060168266,0.0037631154991686344,-0.02015896514058113,-0.016650278121232986,-0.016013555228710175,-0.012621600180864334,-0.005098230671137571,-0.012113736942410469,0.007643787190318108,-0.009284963831305504,0.016560671851038933,0.009267978370189667,-0.02315756119787693,-0.019750235602259636,0.001382146030664444,0.008276423439383507,-0.006254507228732109,-0.02272575907409191,-0.015311207622289658,-0.008546640165150166,-0.01986255869269371,-0.0005224030464887619,-0.016155369579792023,0.010898294858634472,-0.01605694182217121,0.007097076624631882,0.010919840075075626,0.016587866470217705,0.0122313117608428,0.010469410568475723,0.020330123603343964,0.023826463147997856,-0.0011833050521090627,0.0015784334391355515,0.013321543112397194,-0.014596164226531982,-0.0024310641456395388,-0.01895718462765217,0.003066142089664936,0.014021111652255058,-0.013442851603031158,-0.009137231856584549,0.016894370317459106,-0.02175641432404518,0.023232584819197655,-0.005241331644356251,0.007740464061498642,0.014035151340067387,-0.023927779868245125,-0.0025505751837044954,0.003546737367287278,0.024001169949769974,0.009301546961069107,0.005213004071265459,0.02344479225575924,-0.002570878714323044,0.02393730916082859,0.01520262286067009,0.003928938414901495,0.005101148039102554,-0.01702902466058731,0.0006927920621819794,-0.011319184675812721,0.015564643777906895,-0.01310008205473423,-0.007211637683212757,0.003131692297756672,0.0020845490507781506,0.009966079145669937,0.014021318405866623,0.01785375364124775,-0.003466842696070671,0.015276307240128517,-0.014563411474227905,0.013635518029332161,-0.015064161270856857,-0.004101795144379139,0.01498878002166748,-0.018447861075401306,-0.01411871425807476,0.0005055266665294766,0.016248367726802826,0.02053767256438732,0.01338773500174284,-0.019792381674051285,0.013274459168314934,0.014322652481496334,0.015143739059567451,-0.003024657256901264,-0.015000458806753159,-0.0008619750733487308,0.009763916954398155,0.012560802511870861,-0.019464312121272087,-0.018176181241869926,0.0026096906512975693,0.016942454501986504,0.023076064884662628,-0.013726683333516121,-0.014123368076980114,-0.004864589311182499,0.01776602678000927,0.017973097041249275,-0.0049490174278616905,-0.008535481058061123,0.006577826105058193,0.02172660268843174,-0.012862739153206348,0.012285090051591396,0.004244010429829359,0.02367791160941124,-0.0023653744719922543,-0.0003013306122738868,0.004149653483182192,0.016481567174196243,0.003637750167399645,0.010236617177724838,-0.006650480907410383,-0.020319264382123947,0.023021483793854713,0.0030975905247032642,0.004881361033767462,-0.015871219336986542,0.020235750824213028,-0.009957832284271717,-0.006909979972988367,-0.0030135216657072306,0.02278905175626278,-0.009639881551265717,0.015371858142316341,-0.010554042644798756,-0.014351540245115757,0.019231630489230156,0.021336732432246208,-0.021423131227493286,-0.002545599825680256,-0.0008286733645945787,-0.01269687432795763,-0.018183130770921707,0.00399376917630434,0.004738910589367151,-0.018809210509061813,0.0015359398676082492,-0.010574421845376492,-0.01630610227584839,-0.022940145805478096,-0.020508378744125366,0.01519419252872467,-0.014126762747764587,-0.016569241881370544,0.012888114899396896,-0.013275619596242905,0.019840147346258163,0.00708968797698617,-0.0035448672715574503,-0.013569606468081474,-0.020150598138570786,-0.016786718741059303,0.001596285728737712,0.013835298828780651,0.004286985378712416,0.00029879697831347585,0.00745564978569746,-0.015269696712493896,-0.004308477975428104,0.007373800501227379,0.011668981052935123,-0.007263642735779285,0.012361151166260242,-0.012369273230433464,-0.013550886884331703,-0.008152393624186516,-0.01977994479238987,-0.0022393285762518644,0.006620690226554871,-0.005225159227848053,-0.014813613146543503,0.005689578130841255,0.009470733813941479,0.012318205088376999,-0.01779640093445778,0.00039872826891951263,0.0009930279338732362,0.015382198616862297,-0.011980888433754444,-0.002559840911999345,0.01235378161072731,0.0032756300643086433,0.005056427791714668,-0.023926755413413048,-0.02288435958325863,0.016736730933189392,0.0037497123703360558,0.02044661156833172,-0.012927934527397156,-0.02267402596771717,0.02249293588101864,0.004452341236174107,-0.002035697689279914,-0.018576277419924736,0.023511119186878204,-0.018654080107808113,0.014271143823862076,-0.00015761108079459518,0.0033960959408432245,-0.0026497289072722197,0.01965963840484619,0.005773508921265602,0.003971047233790159,0.012155942618846893,-0.0023715251591056585,-0.019618865102529526,-0.01637345738708973,0.01254187896847725,-0.01886703632771969,-0.006251457147300243,-0.01843670941889286,0.01415166538208723,0.01913268305361271,-0.006637462880462408,0.01450987346470356,-0.010215874761343002,0.013999739661812782,0.00047312211245298386,-0.004144883714616299,0.01667926274240017,0.009580938145518303,0.009710379876196384,-0.020557532086968422,0.020150352269411087,-0.01573297381401062,-0.00768299400806427,-0.020020773634314537,0.021095165982842445,0.00648645730689168,0.017558671534061432,0.012446408160030842,-0.00282690511085093,-0.017182227224111557,0.019090455025434494,0.013317651115357876,0.01112623792141676,0.014132867567241192,-0.015568782575428486,-0.02325521409511566,0.023915786296129227,0.011011640541255474,-0.00692328903824091,0.004713057074695826,0.020856386050581932,0.001982203684747219,-0.009528848342597485,0.02216697670519352,-0.0112011032178998,-0.00834924541413784,-0.008550836704671383,0.009248171001672745,-0.020884210243821144,-0.01851855404675007,-0.0232024434953928,-0.005253967363387346,0.010317137464880943,-0.009144818410277367,-0.01897190511226654,0.0019697011448442936,0.007299115881323814,0.0032699673902243376,-0.02158196270465851,-0.003609876148402691,0.015361577272415161,-0.012294509448111057,-0.008366097696125507,-0.02366691455245018,-0.009524871595203876,0.02298194356262684,0.004634329117834568,-0.011317845433950424,-0.014430876821279526,-0.0032151686027646065,-0.02364140935242176,0.01879778318107128,-0.019571781158447266,0.018686862662434578,0.022216888144612312,-0.0029390857089310884,-0.01241627149283886,0.005674246232956648,-0.010825817473232746,0.013700026087462902,0.008207487873733044,0.023067325353622437,-0.009240073151886463,0.010657553561031818,-0.013362612575292587,-0.015493499115109444,-0.021898580715060234,-0.011738050729036331,-0.007232062518596649,-0.01002902165055275,-0.010649831965565681,0.008727638982236385,-0.01212287601083517,0.0060707866214215755,-0.020824192091822624,-0.01345919445157051,0.016954490914940834,0.022639285773038864,0.0036161295138299465,0.011058096773922443,0.017246009781956673,0.01907036267220974,-0.006390639580786228,-0.001889871433377266,0.00019002948829438537,-0.0006874435348436236,0.004588632844388485,-0.017638228833675385,0.022669626399874687,-0.0213994849473238,-0.0075622303411364555,-0.022729501128196716,0.015133928507566452,0.012652584351599216,-0.009690815582871437,0.021816901862621307,0.008774274960160255,-0.004347604233771563,-0.003015719121322036,0.005718625616282225,-0.02018669992685318,-0.0019739314448088408,-0.021484656259417534,-0.014583906158804893,0.00529806362465024,-0.018557259812951088,0.015707004815340042,-0.005986347794532776,-0.014539599418640137,-0.005784076172858477,0.013862388208508492,-0.023325463756918907,0.002435534493997693,0.01540833804756403,0.012118115089833736,0.009285799227654934,-0.008985095657408237,-0.012567673809826374,-0.011133790016174316,-0.02080444246530533,0.016640786081552505,-0.017683761194348335,0.0024253097362816334,0.003853687085211277,-0.019394729286432266,-0.008012274280190468,-0.023625148460268974,-0.004238107241690159,0.014564098790287971,0.003419896587729454,-0.0091007174924016,0.003562216879799962,0.012005775235593319,0.00708182156085968,0.01859758049249649,0.02100808173418045,0.007812483701854944]},"inputBias":{"rows":20,"columns":1,"weights":[11.626449584960938,17.350147247314453,17.363224029541016,17.37318229675293,11.909174919128418,17.405597686767578,17.40779685974121,17.416427612304688,17.337800979614258,17.348676681518555,17.361907958984375,17.379457473754883,17.377338409423828,12.242412567138672,17.377342224121094,12.304141998291016,15.388383865356445,11.813994407653809,11.972199440002441,17.361661911010742]},"forgetMatrix":{"rows":20,"columns":1,"weights":[-0.014634484425187111,0.014188933186233044,-0.013773567974567413,-0.012057523243129253,0.012172446586191654,-0.023091556504368782,-0.008780618198215961,-0.012189160101115704,-0.006324127782136202,-0.003914400935173035,-0.0075816866010427475,-0.02140175551176071,0.021871905773878098,0.01642613857984543,-0.0036080440040677786,-0.006989619694650173,0.011232394725084305,0.010803851298987865,0.009986086748540401,-0.019851883873343468]},"forgetHidden":{"rows":20,"columns":20,"weights":[0.007572151720523834,-0.004658136982470751,0.00897502526640892,-0.015995552763342857,-0.001117325504310429,-0.012171776965260506,0.00653353426605463,-0.016145754605531693,0.012818189337849617,0.012059993110597134,0.013801380060613155,-0.004233934450894594,-0.013449324294924736,-0.02309204824268818,-0.003173887263983488,0.0009522010805085301,0.01323494128882885,0.0004576914943754673,-0.010958461090922356,0.011575169861316681,-0.011754276230931282,-0.003322089556604624,0.0011015463387593627,-0.015880418941378593,-0.016180625185370445,-0.0010555003536865115,0.018981998786330223,-0.004956136457622051,0.0009270885493606329,-0.016880927607417107,-0.004721620585769415,0.014164346270263195,-0.00006273390317801386,0.00795024260878563,0.018909169360995293,-0.012378468178212643,-0.023016097024083138,0.008669126778841019,0.014610540121793747,-0.02020968310534954,0.006614869460463524,0.011906122788786888,-0.01451752707362175,0.006120184902101755,0.018674233928322792,0.019699087366461754,0.02001793123781681,-0.009585817344486713,0.02355048805475235,-0.005045916885137558,0.017183829098939896,0.009100998751819134,0.013588097877800465,0.021899402141571045,0.01374063454568386,0.012389478273689747,-0.004303520079702139,0.002699735341593623,0.012563111260533333,0.0016074528684839606,-0.02046000026166439,0.0055465721525251865,-0.016871143132448196,-0.018083496019244194,-0.02287980727851391,0.0228539127856493,-0.023836754262447357,-0.0029242068994790316,-0.006940830964595079,-0.02086709626019001,-0.006240571849048138,0.02347247675061226,0.014629026874899864,-0.0028249549213796854,0.015512129291892052,0.005332993809133768,-0.014829160645604134,0.018497785553336143,-0.022917721420526505,0.004865478724241257,0.015767822042107582,-0.014917837455868721,-0.02241470105946064,-0.004705336410552263,0.013749537989497185,0.01510457880795002,0.015325184911489487,-0.011687660589814186,0.014730634167790413,-0.020488129928708076,0.013485435396432877,0.02376273088157177,0.0005903050187043846,0.023327255621552467,-0.017757253721356392,-0.002850553020834923,-0.0110096400603652,0.02205575257539749,0.012561080977320671,-0.018650058656930923,0.01927506923675537,-0.006915281526744366,-0.004892273340374231,-0.01055833324790001,0.008328877389431,-0.019973374903202057,0.016979454085230827,-0.016396155580878258,0.020773975178599358,0.0009904474718496203,0.017287755385041237,-0.0037252944894135,0.007937987335026264,0.023533469066023827,-0.0238396804779768,-0.005676396656781435,-0.0014244510093703866,0.01914716511964798,0.0215821024030447,-0.0041069514118134975,-0.008285049349069595,0.010744892992079258,-0.004684442654252052,0.008806400001049042,0.008129740133881569,-0.011965149082243443,-0.01725831814110279,0.014932351186871529,0.0009558933088555932,-0.015833914279937744,-0.00912532303482294,0.004797049798071384,-0.0011958652175962925,0.011176035739481449,-0.007059173658490181,0.01289909053593874,0.003554511582478881,-0.00251405849121511,0.01382477954030037,-0.01590476743876934,0.011299628764390945,-0.01129006315022707,0.012896078638732433,0.014378339983522892,-0.01994326338171959,-0.011577396653592587,0.0032216075342148542,-0.011687567457556725,0.006148871965706348,-0.014434004202485085,-0.018107600510120392,0.00463534751906991,-0.018340080976486206,-0.011867718771100044,-0.0015399284893646836,0.018811678513884544,-0.00864032469689846,-0.003518700832501054,-0.015191659331321716,-0.0007955327164381742,0.0009179143235087395,-0.01534603163599968,-0.004685238469392061,0.0067290011793375015,0.009794206358492374,-0.01343223825097084,-0.00834309309720993,-0.01511986181139946,-0.016848476603627205,-0.013054030016064644,0.006430337205529213,0.009475102648139,0.015021493658423424,0.016149073839187622,-0.017215827479958534,0.0198039710521698,-0.0012218848569318652,-0.005283110775053501,0.018203971907496452,-0.022614261135458946,0.015293996781110764,-0.018038328737020493,-0.012901648879051208,0.02279367297887802,0.010645775124430656,-0.008664791472256184,0.015449120663106441,0.011027318425476551,-0.003964830655604601,-0.0018831288907676935,-0.023308303207159042,0.0020399035420268774,0.022899581119418144,0.00878733117133379,-0.00840738508850336,0.02060171775519848,0.020500224083662033,-0.021942179650068283,-0.0062850951217114925,0.00012531135871540755,0.019699422642588615,-0.012067091651260853,0.009385017678141594,-0.00006426731124520302,-0.0075972313061356544,0.00967460311949253,-0.010868730023503304,0.01594720594584942,0.010891756974160671,0.020742671564221382,-0.014444798231124878,0.021070491522550583,-0.00020570452034007758,-0.02151774801313877,0.0011102501302957535,-0.012823058292269707,-0.010737963020801544,0.005396013613790274,-0.022071199491620064,0.008431237190961838,0.018442504107952118,0.01233372651040554,-0.016894593834877014,-0.009235747158527374,-0.000774094951339066,0.01824806071817875,0.00027503614546731114,0.009057758376002312,0.017750456929206848,-0.012487380765378475,-0.01955733262002468,0.0019426940707489848,0.022528385743498802,0.015528205782175064,-0.00475659966468811,-0.012388172559440136,0.006721502635627985,0.014554068446159363,0.00046632549492642283,-0.022475095465779305,0.0038770202081650496,-0.02310488186776638,-0.010906126350164413,0.015021847561001778,0.020784158259630203,-0.018147200345993042,-0.00577576644718647,0.006629665847867727,-0.0022711544297635555,0.008945241570472717,-0.016501177102327347,0.016790693625807762,-0.002964793238788843,-0.004959119949489832,-0.020816490054130554,-0.009451826103031635,0.022048993036150932,0.023520413786172867,-0.015794700011610985,-0.010068679228425026,-0.01886056922376156,-0.0018178245518356562,0.02140137180685997,0.004061119630932808,-0.01854792796075344,-0.00626007653772831,0.02120162360370159,0.018722329288721085,-0.024005867540836334,0.0015170242404565215,-0.013200035318732262,0.00044127737055532634,0.010943543165922165,0.014363568276166916,0.014011691324412823,0.019149452447891235,-0.0011959733674302697,0.021480510011315346,0.0028630367014557123,-0.0034927434753626585,0.009348452091217041,-0.020081283524632454,-0.012648138217628002,-0.0051916902884840965,-0.01514686644077301,-0.011415707878768444,-0.01360382791608572,0.020644504576921463,-0.01775585673749447,-0.008833430707454681,0.002045047702267766,-0.011112667620182037,-0.0028616422787308693,0.015826886519789696,0.001352869556285441,0.011456828564405441,-0.008434280753135681,-0.023458372801542282,-0.010991040617227554,0.008818433620035648,-0.0033620824106037617,-0.0004321548040024936,0.012564368546009064,0.004813681822270155,0.006287685129791498,-0.019715990871191025,-0.022969206795096397,0.008204171434044838,0.015153970569372177,-0.019549565389752388,0.022721143439412117,0.02006697654724121,0.003746568225324154,0.0085570327937603,0.013267280533909798,0.003977430053055286,0.015253480523824692,0.0020929977763444185,-0.0018074365798383951,0.02238747477531433,-0.011478769592940807,0.008148901164531708,-0.00654244888573885,-0.0007552251336164773,-0.005320064723491669,-0.00864419061690569,-0.006276886444538832,0.0017345823580399156,-0.0033356789499521255,0.013409856706857681,-0.01748020574450493,-0.006712272763252258,-0.018524812534451485,0.023915713652968407,-0.01374817080795765,0.014552488923072815,-0.0210216473788023,-0.019991617649793625,0.02014419250190258,-0.016083160415291786,0.01367969997227192,-0.005143199115991592,0.009360036812722683,0.003935215063393116,0.013245184905827045,0.004890429321676493,-0.009091943502426147,-0.0181285347789526,-0.020741842687129974,0.0018998554442077875,0.013163876719772816,-0.019421640783548355,-0.0213395357131958,0.0016165227862074971,0.007903401739895344,0.004237008281052113,0.012981068342924118,-0.004058487713336945,0.0029345701914280653,0.013870079070329666,0.0022159158252179623,-0.02358977124094963,0.008573545143008232,-0.008853310719132423,0.004755070433020592,0.0027908319607377052,0.0012221935903653502,-0.013744844123721123,-0.010208403691649437,0.007924338802695274,-0.007553650066256523,0.0005464153946377337,0.017498884350061417,0.005931806284934282,0.010693053714931011,0.022855611518025398,-0.0015946357743814588,0.009058679454028606,-0.024011841043829918,0.015786517411470413,0.002480494324117899,-0.012501876801252365,0.01098050456494093,0.005690573249012232,-0.007621304132044315,0.008775253780186176,0.021396949887275696,0.009694764390587807,-0.012577824294567108,0.008897155523300171,0.017816392704844475,-0.006419388577342033,-0.020256727933883667,-0.009716994129121304,-0.0010461064521223307,0.011124269105494022,-0.009835400618612766,0.005807969719171524,-0.015764683485031128,-0.01836969703435898]},"forgetBias":{"rows":20,"columns":1,"weights":[0,0,0,0,0,0,0,0,0,0,0,0,0,0,0,0,0,0,0,0]},"outputMatrix":{"rows":20,"columns":1,"weights":[0.21360169351100922,-0.00042190050589852035,0.19803138077259064,-0.00044714429532177746,0.13291871547698975,0.12291252613067627,0.4322587251663208,0.327952116727829,0.29128366708755493,0.449351042509079,0.32120218873023987,0.26978379487991333,0.6575706005096436,0.1414591521024704,0.22445937991142273,0.165782168507576,0.23037725687026978,0.15182362496852875,0.05187065154314041,0.3606056571006775]},"outputHidden":{"rows":20,"columns":20,"weights":[0.005537187214940786,0.01663978584110737,0.022558733820915222,0.01730780489742756,-0.005734333302825689,0.009824823588132858,-0.008604222908616066,-0.012443320825695992,-0.02055802009999752,0.013593103736639023,0.010584697127342224,-0.011401832103729248,0.017008421942591667,-0.0042614382691681385,0.009669410064816475,0.01564825139939785,-0.014000074937939644,0.001526823965832591,-0.013200324028730392,-0.001786459586583078,0.0036921785213053226,-0.009941761381924152,-0.022594599053263664,0.017253920435905457,0.004930833354592323,0.0169779434800148,0.0007593521731905639,0.0008955803932622075,-0.015083031728863716,0.010788500308990479,0.00988810881972313,0.008845329284667969,0.009253039956092834,0.004933169577270746,0.02405352145433426,-0.0015288949944078922,0.008498498238623142,0.006188559345901012,0.0023860910441726446,-0.015356531366705894,0.004810805432498455,-0.00781414844095707,0.006314030848443508,-0.00459058815613389,0.01202477514743805,-0.0070351846516132355,-0.015111425891518593,-0.01802617684006691,-0.0040769679471850395,0.010118570178747177,0.009197605773806572,0.01321505568921566,0.003259646939113736,-0.0006221357034519315,-0.004335306119173765,0.005894105415791273,-0.006947818212211132,0.014312449842691422,0.0021568804513663054,0.00664418563246727,-0.014609262347221375,0.023147916421294212,0.022098636254668236,0.0002785077376756817,0.01823049783706665,0.016586827114224434,0.017903117462992668,-0.002206193981692195,-0.0009040075819939375,0.006357571575790644,-0.005909689236432314,-0.005199486389756203,0.007535606622695923,0.011636480689048767,0.021755950525403023,-0.019816970452666283,0.006750664673745632,0.002615499310195446,-0.021618330851197243,0.008128581568598747,0.01689300127327442,-0.019027218222618103,0.020406588912010193,-0.019084084779024124,-0.01696797087788582,-0.004611957352608442,0.003124783281236887,-0.016399919986724854,-0.0049329232424497604,0.018887097015976906,-0.006532541010528803,0.002413933165371418,0.01719134859740734,0.004116079304367304,0.0004942009109072387,-0.016703026369214058,0.00227067107334733,0.01576468162238598,-0.017206428572535515,0.014621185138821602,0.017603302374482155,0.018661420792341232,0.02355845458805561,-0.005113507155328989,0.004139855038374662,0.007473871111869812,0.016321687027812004,-0.004936418030411005,-0.013220233842730522,-0.022743364796042442,-0.022051507607102394,-0.01150520984083414,0.011579184792935848,-0.015229225158691406,0.007867102511227131,-0.004310296848416328,-0.009300779551267624,0.01145952194929123,0.02107527107000351,0.021534958854317665,0.018913673236966133,0.0017982745775952935,-0.00810233224183321,-0.017027482390403748,-0.006753713358193636,0.02042076736688614,-0.0206394474953413,0.009819175116717815,0.021591484546661377,0.012796806171536446,-0.014718085527420044,0.023710545152425766,-0.020059391856193542,-0.00016025721561163664,-0.021283229812979698,-0.009476101025938988,-0.020493580028414726,0.011060049757361412,0.018541622906923294,-0.010665126144886017,0.023225978016853333,-0.004746939055621624,-0.02374074049293995,-0.021837644279003143,-0.018171202391386032,-0.00975341908633709,0.007147691678255796,0.011524608358740807,0.010992739349603653,0.010272749699652195,0.005012524779886007,0.015470068901777267,0.006225638557225466,-0.022103000432252884,0.010131048038601875,0.011717335321009159,0.007370946928858757,-0.008125675842165947,0.007975074462592602,-0.012060759589076042,0.015540032647550106,0.001580062205903232,-0.006739788223057985,-0.019418179988861084,-0.012980623170733452,0.019775724038481712,0.020558228716254234,0.0008379609789699316,-0.022248174995183945,-0.0043668015860021114,-0.013166917487978935,0.016943052411079407,-0.0008576330728828907,0.016606004908680916,-0.009500023908913136,-0.010434078983962536,-0.014159717597067356,-0.021526508033275604,0.023635221645236015,0.013720271177589893,-0.012284619733691216,-0.02167271077632904,-0.016925785690546036,0.013036047108471394,-0.023207923397421837,-0.01314268447458744,-0.021936172619462013,-0.0053293597884476185,-0.022545794025063515,0.01352275162935257,-0.0038739130832254887,-0.007110427133738995,0.019047154113650322,0.005787070840597153,-0.0216806810349226,0.013559701852500439,-0.017006486654281616,-0.019430823624134064,-0.015934793278574944,-0.004989498760551214,-0.012505091726779938,-0.02000044845044613,-0.0020616515539586544,0.011528845876455307,0.01727738045156002,0.005041696131229401,-0.006498054135590792,-0.017474951222538948,0.0024204545188695192,0.004770060069859028,0.004935735370963812,-0.022547021508216858,-0.005475230515003204,0.0017420168733224273,-0.006400919519364834,0.019037164747714996,-0.005877903662621975,-0.004062175285071135,-0.010956722311675549,0.02215680107474327,0.00502911489456892,-0.014045209623873234,-0.010919826105237007,-0.021780312061309814,0.01774248480796814,-0.022352373227477074,-0.006473157089203596,0.018157852813601494,-0.021208040416240692,0.004957047291100025,-0.011564611457288265,-0.002994253532961011,0.008952584117650986,0.01676616631448269,0.00468763243407011,-0.02373945340514183,-0.0008268660167232156,-0.011816713027656078,0.0019227007869631052,0.022911647334694862,-0.022987959906458855,0.00005211815005168319,0.01882782205939293,-0.020261000841856003,0.02357071079313755,-0.007747343275696039,-0.012110661715269089,-0.0029495800845324993,-0.00041107574361376464,-0.009725227952003479,0.014071933925151825,-0.01450834609568119,0.003561013378202915,0.008454340510070324,-0.01396996807307005,-0.02063218131661415,0.005872911773622036,-0.01925465278327465,-0.016929874196648598,-0.006314172875136137,0.0037092333659529686,-0.009557523764669895,0.009547477588057518,0.013352561742067337,-0.0007282489095814526,-0.017462771385908127,0.005010317079722881,-0.0053536067716777325,-0.0042933630757033825,-0.005272431764751673,-0.0035894315224140882,-0.0016690324991941452,-0.00597453722730279,0.015231581404805183,0.0007787796785123646,-0.012997038662433624,0.006527288816869259,0.01704723946750164,0.0006368873291648924,-0.0165755283087492,-0.020432893186807632,0.0124248331412673,-0.01113852858543396,-0.0013500646455213428,-0.019978316500782967,0.017796700820326805,0.008218170143663883,-0.016053056344389915,0.005611420143395662,0.0077682193368673325,-0.011579707264900208,0.021123768761754036,-0.00632509496062994,-0.023022757843136787,0.020526733249425888,-0.007663094438612461,0.014085442759096622,-0.004123724065721035,0.00961032323539257,0.0013739793794229627,0.0022139488719403744,0.019180338829755783,-0.019818855449557304,-0.01232327613979578,0.017214013263583183,0.005520470906049013,0.006405588239431381,-0.0021268774289637804,0.019505172967910767,0.008574074134230614,0.010191107168793678,-0.00786976981908083,0.022468259558081627,-0.007540702819824219,-0.0016270236810669303,-0.019327668473124504,-0.014635773375630379,-0.010989434085786343,0.01897168532013893,-0.0071992590092122555,0.005388639867305756,0.00948783103376627,0.02379099279642105,0.011242006905376911,-0.00288923061452806,-0.023594969883561134,0.008237113244831562,0.019994031637907028,0.01478256843984127,0.01945660263299942,-0.013310158625245094,-0.018447788432240486,-0.014244559220969677,0.016442736610770226,-0.020841997116804123,0.02365683764219284,0.00032942325924523175,-0.0040488578379154205,-0.0007637006347067654,0.015585361048579216,0.008877080865204334,0.021258115768432617,-0.011752498336136341,0.020371850579977036,-0.022312944754958153,0.0029882583767175674,-0.0015850663185119629,-0.012511655688285828,-0.0179913267493248,-0.018539510667324066,-0.010794884525239468,-0.01045257318764925,-0.018425434827804565,0.01370516698807478,0.015176640823483467,0.01483827829360962,-0.008874240331351757,-0.00982107874006033,0.013913373462855816,0.020420070737600327,0.0006294779595918953,0.02355925738811493,-0.02145485021173954,-0.011163227260112762,0.023723023012280464,-0.00773723516613245,0.017445867881178856,-0.02262766659259796,-0.009218261577188969,-0.005453027319163084,-0.004987360909581184,0.019548149779438972,0.003562456928193569,-0.01146620512008667,0.006332694087177515,0.012889014557003975,0.0024460884742438793,0.005941347684711218,0.0032948916777968407,0.010991264134645462,-0.014026573859155178,0.017758945003151894,-0.0011923578567802906,-0.012308803386986256,-0.005380230490118265,-0.009544553235173225,0.012017256580293179,-0.021594369783997536,0.001215070951730013,-0.014276228845119476,-0.01988338679075241,0.016527796164155006,0.0024629400577396154,0.020450737327337265,-0.019326308742165565,-0.006184249185025692,-0.023292172700166702,0.023456091061234474,0.007442906498908997,-0.009832561947405338]},"outputBias":{"rows":20,"columns":1,"weights":[17.368741989135742,12.587141036987305,17.36856460571289,12.522191047668457,17.438722610473633,17.4356746673584,17.41843032836914,17.366798400878906,17.399065017700195,17.392301559448242,17.402551651000977,17.3488712310791,17.379941940307617,17.43825340270996,17.34158706665039,17.362197875976562,17.381654739379883,17.39397430419922,17.39897346496582,17.460939407348633]},"cellActivationMatrix":{"rows":20,"columns":1,"weights":[-2.652493715286255,-0.06908953934907913,-0.4488534927368164,0.12709644436836243,0.8902549147605896,-0.5378475189208984,-0.46801096200942993,-0.7992309927940369,-2.3491010665893555,1.0874382257461548,0.9630165100097656,-2.4344542026519775,0.4939088523387909,0.03630213811993599,-0.1343594342470169,0.18353690207004547,-1.2576696872711182,-0.8694517016410828,-1.0675296783447266,-0.47058457136154175]},"cellActivationHidden":{"rows":20,"columns":20,"weights":[-0.004341854248195887,0.012868319638073444,0.003219892969354987,0.011789992451667786,0.01942276954650879,-0.01172901876270771,-0.006678032223135233,0.017740029841661453,0.009753597900271416,0.013922905549407005,-0.017032543197274208,-0.015342684462666512,-0.0018406640738248825,-0.014604538679122925,0.008214118890464306,-0.006098242476582527,-0.013470117002725601,0.003248092718422413,0.0073628658428788185,-0.0024566370993852615,-0.01849929615855217,0.021726200357079506,0.005243814550340176,-0.0027957444544881582,0.006582993548363447,-0.02271432615816593,-0.009426189586520195,-0.003012283705174923,0.008887412026524544,-0.02249590866267681,-0.014872515574097633,0.019101930782198906,-0.009463677182793617,-0.007244981825351715,0.009401015006005764,-0.016370439901947975,0.006531299091875553,-0.014062146656215191,0.004055209923535585,0.010934904217720032,0.011539793573319912,-0.021841848269104958,-0.009425891563296318,0.012451745569705963,-0.000777093751821667,-0.023813076317310333,0.013333616778254509,0.015665194019675255,-0.016906874254345894,-0.0019368510693311691,0.021881746128201485,0.0030480024870485067,-0.005846052896231413,0.013780911453068256,0.011939829215407372,0.009184179827570915,-0.018611518666148186,-0.0015442580915987492,-0.002028882736340165,0.01184922270476818,-0.006260191556066275,-0.000012680477084359154,-0.01866929978132248,-0.016247935593128204,0.01820339635014534,0.0023485540878027678,0.008589555509388447,0.021035024896264076,0.016990164294838905,-0.0013129782164469361,-0.0008433887851424515,0.022132398560643196,-0.01464846357703209,-0.004170561674982309,0.0068471855483949184,-0.018732907250523567,-0.012036079540848732,0.016416575759649277,0.023815497756004333,0.00364752858877182,0.020919110625982285,-0.0026002454105764627,-0.007935062982141972,0.011893303133547306,0.023018889129161835,0.007510654628276825,-0.010989169590175152,0.006568744778633118,-0.00537740858271718,-0.009387020021677017,-0.012925584800541401,-0.005665237084031105,0.002242148155346513,-0.019388442859053612,-0.01499575562775135,-0.004894403740763664,0.002508425386622548,0.010753330774605274,0.01677101105451584,-0.015305107459425926,0.02311263419687748,0.023155158385634422,0.017781300470232964,0.019490018486976624,0.023604994639754295,-0.0061240773648023605,-0.020310290157794952,-0.00943013746291399,0.0008342579239979386,0.0029050775337964296,-0.023588750511407852,-0.014714252203702927,-0.002322845160961151,-0.011116154491901398,0.018880032002925873,0.007089464459568262,-0.01763228513300419,-0.00990157201886177,0.012922471389174461,-0.02225591242313385,-0.018144050613045692,0.005397161468863487,-0.02045600302517414,-0.02094809152185917,-0.019309718161821365,0.0016774879768490791,-0.016477778553962708,-0.010679167695343494,0.0027338687796145678,-0.013739940710365772,0.0056444210931658745,0.011012174189090729,0.0222773477435112,-0.015743989497423172,-0.013065905310213566,-0.010793901048600674,-0.015897467732429504,-0.02152424119412899,0.011109293438494205,0.011428195983171463,0.017747316509485245,0.013192390091717243,-0.017014440149068832,-0.010602036491036415,0.01671714335680008,0.014738069847226143,0.007203563116490841,0.02240047976374626,-0.014593657106161118,0.008635904639959335,-0.01693045347929001,0.011658758856356144,0.01036818791180849,-0.0004632597556337714,0.015994595363736153,0.00726995337754488,0.0008883127011358738,0.011897211894392967,-0.012634612619876862,-0.01140072662383318,0.0077824280597269535,-0.021662721410393715,0.0014428884023800492,0.017291678115725517,-0.007014704868197441,0.0006870001670904458,0.022546663880348206,0.005354850087314844,-0.0009636381873860955,-0.023132525384426117,0.010218128561973572,-0.01504528522491455,-0.017249401658773422,0.010564691387116909,-0.007175318896770477,0.002002633875235915,0.011492971330881119,0.01762564852833748,-0.016528204083442688,-0.012185697443783283,0.0014541804557666183,-0.011591462418437004,-0.002577174687758088,-0.01687677949666977,0.020639728754758835,0.006423362996429205,-0.015054157003760338,-0.007138681132346392,-0.014627799391746521,-0.0217727180570364,-0.015332868322730064,-0.018435871228575706,-0.018319344148039818,0.0029560215771198273,0.014287427999079227,0.003343593329191208,-0.015248971059918404,-0.02205054461956024,0.004758911207318306,0.019127393141388893,0.003463882254436612,0.0032579107210040092,-0.0041311378590762615,-0.008644926361739635,0.0013214348582550883,0.005389299243688583,-0.009666153229773045,0.004679366480559111,0.020321348682045937,-0.017395272850990295,0.02023957669734955,-0.018730785697698593,0.021318882703781128,0.002479654736816883,-0.020544782280921936,-0.007045823615044355,-0.005732194986194372,-0.018124103546142578,0.009466244839131832,-0.0014890709426254034,-0.0186564102768898,0.007518939673900604,0.002302667358890176,-0.019218984991312027,0.009954724460840225,0.023585837334394455,0.022181237116456032,-0.006246201694011688,-0.012381911277770996,-0.0229791309684515,-0.012210693210363388,-0.019231244921684265,0.020757358521223068,-0.002623292850330472,0.008402906358242035,-0.01973438262939453,0.007866710424423218,-0.01832372136414051,0.021939972415566444,-0.015062915161252022,0.01854400336742401,0.015347763895988464,0.018970921635627747,0.02170860767364502,-0.023163316771388054,-0.0077013736590743065,0.010891318321228027,0.019952701404690742,0.012099898420274258,-0.006463939789682627,0.020341571420431137,0.008113160729408264,0.013395753689110279,0.0018436182290315628,0.002693937160074711,-0.008563637733459473,0.01013349648565054,-0.0017987675964832306,0.020937133580446243,-0.0020010992884635925,-0.019330743700265884,-0.01440771296620369,0.01559666357934475,-0.016164854168891907,-0.010839029215276241,0.0035701049491763115,-0.010651112534105778,0.0034106990788131952,0.014271224848926067,-0.022510632872581482,0.00394789082929492,-0.006469761487096548,-0.0013220729306340218,0.021625369787216187,-0.009846946224570274,0.014003733173012733,0.016896571964025497,0.006176125258207321,-0.0007369131199084222,0.014913694933056831,-0.003724663518369198,-0.020142951980233192,-0.013707434758543968,-0.020232902839779854,0.0024809737224131823,0.0035265078768134117,-0.01689428649842739,-0.014609204605221748,-0.017425673082470894,-0.0016769269714131951,-0.0038653560914099216,0.015330249443650246,0.002987079555168748,-0.014114332385361195,0.0021432964131236076,0.017136260867118835,-0.0030558172147721052,-0.021153047680854797,0.0037881797179579735,-0.016342496499419212,0.011273734271526337,0.008701888844370842,-0.021525435149669647,0.011119230650365353,-0.0056792963296175,-0.009158909320831299,0.009432803839445114,-0.002655492164194584,-0.008985210210084915,-0.010673445649445057,-0.019453752785921097,0.01648474670946598,0.02395634911954403,-0.0162341445684433,0.020339174196124077,-0.011132750660181046,0.012299420312047005,0.008380703628063202,0.003222191007807851,0.0048184688203036785,-0.010691034607589245,-0.02155470661818981,0.012641623616218567,-0.004447905346751213,-0.010720081627368927,0.007687853649258614,0.021733440458774567,0.011916573159396648,0.00856825616210699,0.004723934922367334,0.00625876197591424,0.0074501195922493935,0.0017624669708311558,-0.021715134382247925,-0.0010137612698599696,-0.0075016748160123825,-0.009903278201818466,-0.009242625907063484,-0.011580456048250198,-0.013031786307692528,-0.014990614727139473,-0.02181904949247837,-0.016148436814546585,-0.0095216678455472,0.01500975713133812,0.003580959979444742,0.003968285862356424,0.012034095823764801,-0.007769769988954067,-0.017999064177274704,-0.01253480277955532,-0.0023943798150867224,-0.01645072177052498,-0.006918347906321287,0.022812828421592712,0.01728537492454052,-0.023799343034625053,0.004721018951386213,0.011123651638627052,0.01874253712594509,0.011791063472628593,0.02201724238693714,-0.015911564230918884,0.01242937333881855,-0.0057158684358000755,-0.019998600706458092,-0.019076839089393616,0.001454174635000527,0.021015945822000504,0.020281804725527763,0.0007910220301710069,-0.015628118067979813,-0.006532021798193455,-0.00842879805713892,0.007846757769584656,-0.006380206439644098,-0.0037893359549343586,-0.007433084771037102,0.01320180855691433,0.003786712884902954,-0.005511197727173567,-0.014586353674530983,0.02246955595910549,-0.00313600548543036,0.00633279187604785,-0.0014420850202441216,-0.014526622369885445,0.016014259308576584,-0.010536293499171734,0.0203235000371933,0.0016406587092205882,-0.018911214545369148,-0.015120983123779297,-0.01354832574725151,0.008604899048805237,-0.008567708544433117,-0.00905285682529211,0.012444301508367062,0.0122230164706707,-0.012382645159959793]},"cellActivationBias":{"rows":20,"columns":1,"weights":[-9.069544792175293,-9.121360778808594,-9.181008338928223,9.150531768798828,9.145181655883789,-9.081060409545898,-9.17699146270752,-9.05335521697998,-9.018706321716309,9.079845428466797,9.054240226745605,-9.13582992553711,9.058320045471191,9.038294792175293,-9.057185173034668,9.031957626342773,-9.121418952941895,-9.073095321655273,-9.11926555633545,-9.08474063873291]}}],"outputConnector":{"rows":1,"columns":20,"weights":[-18.4378662109375,-20.083213806152344,-25.750015258789062,20.00432586669922,19.233217239379883,-25.790136337280273,-25.753202438354492,-25.78290557861328,-26.112415313720703,25.25130271911621,25.775524139404297,-26.110769271850586,25.75627899169922,20.44889259338379,-25.76165199279785,21.450387954711914,-24.764461517333984,-19.420372009277344,-20.729354858398438,-25.767332077026367]},"output":{"rows":1,"columns":1,"weights":[19.61800765991211]},"inputLookup":null,"inputLookupLength":0,"outputLookup":null,"outputLookupLength":0}